[INPUT]
{
    "self": {
        "regressor": {
            "coef_": [
                0.15051717,
                0.54178566,
                0.15228481,
                -0.09831566,
                0.08479532,
                0.31997014,
                0.1206349,
                0.04683906,
                0.22704151,
                0.07356863
            ],
            "intercept_": 6.274842541140223,
            "n_features_in_": 10,
            "n_iter_": 1000,
            "n_outputs_": 1
        },
        "transformer": {
            "means_": [
                0.19216265,
                0.04178586,
                0.05847558,
                0.09217779,
                0.09266189,
                0.11022403,
                0.04563505,
                0.03530583,
                0.06371855,
                0.02801748
            ],
            "n_features_in_": 10,
            "scales_": [
                0.45590652,
                0.42128609,
                0.45223234,
                0.3958916,
                0.37841083,
                0.48702735,
                0.45868459,
                0.42883133,
                0.39856212,
                0.43686984
            ],
            "variances_": [
                0.20793913,
                0.17751585,
                0.20469182,
                0.15668144,
                0.14296654,
                0.23717455,
                0.21017978,
                0.18425943,
                0.15889943,
                0.19064901
            ],
            "with_mean": true,
            "with_std": true
        },
        "func": null,
        "inverse_func": null,
        "check_inverse": true,
        "_training_dim": 1,
        "transformer_": {
            "means_": [
                0.19216265,
                0.04178586,
                0.05847558,
                0.09217779,
                0.09266189,
                0.11022403,
                0.04563505,
                0.03530583,
                0.06371855,
                0.02801748
            ],
            "n_features_in_": 10,
            "scales_": [
                0.45590652,
                0.42128609,
                0.45223234,
                0.3958916,
                0.37841083,
                0.48702735,
                0.45868459,
                0.42883133,
                0.39856212,
                0.43686984
            ],
            "variances_": [
                0.20793913,
                0.17751585,
                0.20469182,
                0.15668144,
                0.14296654,
                0.23717455,
                0.21017978,
                0.18425943,
                0.15889943,
                0.19064901
            ],
            "with_mean": true,
            "with_std": true
        },
        "regressor_": {
            "coef_": [
                0.15051717,
                0.54178566,
                0.15228481,
                -0.09831566,
                0.08479532,
                0.31997014,
                0.1206349,
                0.04683906,
                0.22704151,
                0.07356863
            ],
            "intercept_": 6.274842541140223,
            "n_features_in_": 10,
            "n_iter_": 1000,
            "n_outputs_": 1
        }
    },
    "args": {
        "X": [
            [
                0.00711631,
                -0.07603415,
                -0.09343924,
                0.08625253,
                0.14603876,
                -0.05771612,
                -0.07293651,
                -0.02992031,
                0.07996889,
                0.04263571
            ],
            [
                0.09561025,
                0.09711761,
                -0.05080186,
                0.07305862,
                0.09172068,
                0.06925807,
                0.17741487,
                -0.0732949,
                0.11753698,
                -0.06421161
            ],
            [
                -0.09223539,
                0.01362846,
                -0.18398164,
                -0.00865921,
                0.06120404,
                0.02757586,
                0.00750984,
                0.16012856,
                0.09053745,
                0.12527754
            ],
            [
                0.05029842,
                -0.0164978,
                -0.00825353,
                0.05764348,
                0.15705944,
                -0.09368945,
                -0.0941719,
                0.07718087,
                -0.15573579,
                0.09769859
            ],
            [
                0.07170617,
                -0.15503243,
                0.13740415,
                0.16792259,
                -0.03832064,
                -0.04051064,
                0.12756927,
                0.10109749,
                0.04733501,
                0.05871607
            ],
            [
                -0.05349515,
                -0.01990493,
                0.0706575,
                -0.0171558,
                0.17384577,
                0.06935459,
                0.03735149,
                0.07770214,
                -0.07549253,
                -0.16326022
            ],
            [
                -0.05537918,
                -0.15082306,
                -0.17122213,
                -0.01092762,
                0.05375692,
                -0.07048603,
                0.07591978,
                -0.02550788,
                0.14369134,
                -0.10912365
            ],
            [
                -0.0849306,
                -0.03826896,
                -0.08621119,
                0.0172275,
                -0.11587294,
                0.05784038,
                -0.07021239,
                -0.08180628,
                0.03358946,
                -0.06163618
            ],
            [
                -0.08863434,
                0.04387867,
                0.09823291,
                -0.02241305,
                -0.02060189,
                -0.09171388,
                -0.03280688,
                -0.02512426,
                -0.00657197,
                -0.03251911
            ],
            [
                -0.05740152,
                0.06789611,
                -0.03275485,
                -0.03632399,
                0.10819099,
                -0.07379723,
                0.01907985,
                0.00763526,
                -0.01433306,
                0.09617038
            ],
            [
                0.07112948,
                -0.06793333,
                -0.11896164,
                0.04532936,
                -0.0107475,
                0.03570335,
                0.01747809,
                -0.09030845,
                0.08477842,
                0.05768046
            ],
            [
                0.08678664,
                0.09304701,
                -0.03107288,
                0.00513438,
                0.04656266,
                0.08734407,
                0.01765578,
                0.03063913,
                -0.06815358,
                0.03021635
            ],
            [
                0.04475987,
                -0.07692329,
                -0.02042561,
                0.08095711,
                0.15777454,
                -0.04572296,
                -0.04278364,
                0.1045949,
                0.09382826,
                0.11124759
            ],
            [
                -0.05309023,
                -0.0341109,
                -0.02426933,
                -0.00714216,
                0.02924751,
                -0.03127921,
                0.09554972,
                0.08786383,
                0.08322459,
                0.07278692
            ],
            [
                0.08672777,
                -0.12257153,
                0.03766916,
                0.06363335,
                0.04213359,
                0.05222447,
                0.08702283,
                0.00272564,
                0.04907244,
                0.08932096
            ],
            [
                0.01310893,
                0.0410296,
                0.04499167,
                -0.02770912,
                0.04129862,
                0.01471039,
                -0.03160382,
                -0.02686256,
                -0.08033467,
                -0.05939513
            ],
            [
                -0.05346567,
                0.10036709,
                0.0251435,
                -0.06791123,
                -0.12899405,
                0.0453425,
                -0.04407598,
                -0.08914636,
                -0.02048577,
                0.03831477
            ],
            [
                0.03117738,
                0.04245719,
                -0.0469264,
                -0.03850874,
                0.08503498,
                -0.0030084,
                0.05608887,
                0.09962183,
                0.0211224,
                -0.03496786
            ],
            [
                -0.01566028,
                -0.15605335,
                0.01737849,
                -0.0678986,
                0.0263659,
                -0.06880373,
                -0.02718938,
                0.10626564,
                0.08565548,
                0.08895513
            ],
            [
                -0.02976472,
                -0.14575943,
                -0.07824438,
                0.06477702,
                0.01109357,
                0.0204855,
                0.08262881,
                0.13310374,
                -0.04896705,
                0.03817863
            ],
            [
                0.04522052,
                -0.00400353,
                0.06154109,
                0.10922408,
                -0.01494406,
                0.07709263,
                -0.0600109,
                0.12021638,
                -0.0434218,
                -0.09718069
            ],
            [
                0.11806343,
                0.11921987,
                -0.02527968,
                0.04380228,
                -0.07554324,
                0.02485846,
                0.14434704,
                -0.00877469,
                0.09522338,
                -0.03793277
            ],
            [
                -0.06233764,
                0.02441599,
                0.07884118,
                -0.02159593,
                -0.09088538,
                0.05841459,
                0.02447119,
                -0.00491703,
                0.00814875,
                0.02993751
            ],
            [
                0.03582658,
                -0.01177676,
                -0.05777611,
                0.09123987,
                0.0774223,
                0.01804117,
                -0.03792187,
                0.0032497,
                -0.01079238,
                0.13466299
            ],
            [
                0.05644693,
                -0.06772912,
                0.01581457,
                0.00553528,
                0.08458997,
                -0.07888375,
                0.0277086,
                0.0371798,
                -0.05482246,
                0.0932632
            ],
            [
                -0.09709235,
                0.08454619,
                0.12287126,
                -0.05447383,
                -0.07945875,
                -0.03851248,
                -0.07869093,
                -0.07942604,
                0.04750364,
                0.08991519
            ],
            [
                -0.02809593,
                -0.06690495,
                0.0566554,
                0.06778281,
                -0.05041929,
                0.00449672,
                0.09406162,
                0.04961735,
                -0.01057258,
                0.0211953
            ],
            [
                0.07470823,
                0.09964878,
                0.03742437,
                -0.07192999,
                -0.06964484,
                -0.00389903,
                0.00879734,
                0.01658667,
                0.01798644,
                0.08395514
            ],
            [
                0.04654388,
                -0.02809393,
                0.03574003,
                -0.08890444,
                0.07869338,
                0.03678536,
                0.02570203,
                0.04418851,
                0.03406219,
                -0.01861825
            ],
            [
                0.11169471,
                0.0605537,
                0.12833629,
                0.04404431,
                0.01618575,
                0.01793089,
                0.00622205,
                0.03492119,
                0.06668983,
                0.05178375
            ],
            [
                0.01182226,
                -0.09398546,
                0.06658817,
                0.05828321,
                -0.00621193,
                0.08606532,
                0.0165036,
                0.11114996,
                -0.02365216,
                0.09238258
            ],
            [
                -0.0356927,
                -0.02155948,
                -0.05304624,
                -0.02500402,
                -0.0555609,
                -0.03734474,
                0.0148784,
                -0.08012854,
                -0.02575934,
                -0.0467055
            ],
            [
                -0.08809557,
                -0.07496881,
                0.11537636,
                0.06365161,
                0.04853907,
                -0.07594344,
                0.06135841,
                -0.02795285,
                0.10650479,
                -0.0223992
            ],
            [
                -0.07344677,
                0.05803984,
                0.12808584,
                -0.06079978,
                -0.01286119,
                -0.03526922,
                -0.02194893,
                -0.05928254,
                -0.00928653,
                0.09082881
            ],
            [
                0.00953537,
                0.07840176,
                -0.04180363,
                0.04122241,
                0.04249106,
                0.09948949,
                0.02421779,
                0.02227173,
                0.0954548,
                0.02750556
            ],
            [
                -0.03439525,
                -0.07388346,
                -0.02884068,
                0.03493421,
                0.00313021,
                0.02185061,
                0.01733246,
                0.0334764,
                0.04869933,
                0.08287568
            ],
            [
                0.03237631,
                -0.02787865,
                0.02457145,
                0.05824701,
                0.00511045,
                0.07450906,
                -0.08052722,
                -0.06616378,
                0.06782134,
                0.09841207
            ],
            [
                0.01252754,
                -0.0800599,
                -0.06092425,
                -0.03762018,
                0.01922991,
                -0.00041011,
                -0.02246409,
               