[OUTPUT]
{
    "self": {
        "estimator": "DecisionTreeClassifier()",
        "n_estimators": 10,
        "estimator_params": "()",
        "bootstrap": true,
        "oob_score": true,
        "n_jobs": null,
        "random_state": 42,
        "verbose": 0,
        "warm_start": false,
        "class_weight": null,
        "max_samples": null,
        "criterion": "gini",
        "max_depth": null,
        "min_samples_split": 2,
        "min_samples_leaf": 1,
        "min_weight_fraction_leaf": 0.0,
        "max_features": 1.0,
        "max_leaf_nodes": null,
        "min_impurity_decrease": 0.0,
        "monotonic_cst": null,
        "ccp_alpha": 0.0,
        "n_features_in_": 20,
        "_n_samples": 200,
        "n_outputs_": 1,
        "classes_": [
            0,
            1
        ],
        "n_classes_": [
            2
        ],
        "_n_samples_bootstrap": 200,
        "estimator_": "DecisionTreeClassifier()",
        "estimators_": [
            {
                "tree_": {},
                "n_features_in_": 20,
                "feature_importances_": [
                    0.017777777777777778,
                    0.058823529411764705,
                    0.022222222222222223,
                    0.03888888888888889,
                    0.03333333333333333,
                    0.058823529411764705,
                    0.025925925925925928,
                    0.01818181818181818,
                    0.0,
                    0.03333333333333333,
                    0.025925925925925928,
                    0.016666666666666666,
                    0.06666666666666667,
                    0.0,
                    0.03333333333333333,
                    0.06666666666666667,
                    0.041666666666666664,
                    0.03333333333333333,
                    0.041666666666666664,
                    0.0
                ],
                "oob_decision_function_": [
                    [
                        -0.013887755102040817,
                        0.492125986328125,
                        -0.6646614990234375,
                        -0.04494480993652344,
                        0.3873291015625,
                        0.5449379272460938,
                        -0.409912109375,
                        -0.013427734375,
                        -0.43493634033203125,
                        0.037330810546875,
                        -0.815306640625,
                        0.058616455078125,
                        -0.180511474609375,
                        0.08746337890625,
                        -0.228424072265625,
                        -0.35230218505859375,
                        -0.050537109375,
                        -0.0803203125,
                        -0.1122027587890625,
                        -0.8228759765625
                    ],
                    [
                        0.02746563720703125,
                        0.536376953125,
                        -0.4531324462890625,
                        0.0926666259765625,
                        0.31158447265625,
                        0.738037109375,
                        -0.293701171875,
                        0.0067138671875,
                        -0.46075439453125,
                        0.19140625,
                        -0.7158203125,
                        0.237327392578125,
                        0.142749755859375,
                        0.238037109375,
                        0.09303271484375,
                        -0.2723846435546875,
                        -0.334632080078125,
                        0.0469970703125,
                        -0.295135498046875,
                        -0.81951904296875
                    ]
                ],
                "oob_score_": 0.9473684210526315,
                "feature": [
                    10,
                    7,
                    15,
                    4,
                    19,
                    13,
                    12,
                    18,
                    9,
                    6,
                    17,
                    11,
                    14,
                    16,
                    8,
                    0,
                    5,
                    3,
                    2,
                    1
                ],
                "max_depth": 4,
                "children_left": [
                    1,
                    2,
                    3,
                    4,
                    -1,
                    -1,
                    5,
                    6,
                    7,
                    8,
                    9,
                    10,
                    11,
                    12,
                    13,
                    14,
                    15,
                    16,
                    -1,
                    17
                ],
                "children_right": [
                    18,
                    -1,
                    -1,
                    19,
                    20,
                    -1,
                    -1,
                    -1,
                    -1,
                    -1,
                    -1,
                    -1,
                    -1,
                    -1,
                    -1,
                    -1,
                    -1,
                    -1,
                    -1,
                    -1
                ],
                "feature_importances_": [
                    0.017777777777777778,
                    0.058823529411764705,
                    0.022222222222222223,
                    0.03888888888888889,
                    0.03333333333333333,
                    0.058823529411764705,
                    0.025925925925925928,
                    0.01818181818181818,
                    0.0,
                    0.03333333333333333,
                    0.025925925925925928,
                    0.016666666666666666,
                    0.06666666666666667,
                    0.0,
                    0.03333333333333333,
                    0.06666666666666667,
                    0.041666666666666664,
                    0.03333333333333333,
                    0.041666666666666664,
                    0.0
                ],
                "max_features_": 4,
                "n_classes_": 2,
                "n_features_in_": 20,
                "n_outputs_": 1,
                "tree_": {},
                "weighted_n_node_samples": [
                    200,
                    81,
                    119,
                    19,
                    62,
                    61,
                    35,
                    96,
                    12,
                    23,
                    84,
                    23,
                    19,
                    61,
                    27,
                    34,
                    58,
                    63,
                    61,
                    57,
                    12
                ],
                "weighted_n_samples": [
                    200,
                    81,
                    119,
                    19,
                    62,
                    61,
                    35,
                    96,
                    12,
                    23,
                    84,
                    23,
                    19,
                    61,
                    27,
                    34,
                    58,
                    63,
                    61,
                    57,
                    12
                ]
            }
        ]
    },
    "args": {
        "X": [
            [
                0.0,
                0.0,
                0.0,
                0.0,
                0.0,
                0.0,
                0.0,
                0.0,
                0.0,
                0.0,
                0.0,
                0.0,
                0.0,
                0.0,
                0.0,
                0.0,
                0.0,
                0.0,
                0.0,
                0.0
            ],
            [
                0.0,
                0.0,
                0.0,
                0.0,
                0.0,
                0.0,
                0.0,
                0.0,
                0.0,
                0.0,
                0.0,
                0.0,
                0.0,
                0.0,
                0.0,
                0.0,
                0.0,
                0.0,
                0.0,
                0.0
            ],
            [
                0.0,
                0.0,
                0.0,
                0.0,
                0.0,
                0.0,
                0.0,
                0.0,
                0.0,
                0.0,
                0.0,
                0.0,
                0.0,
                0.0,
                0.0,
                0.0,
                0.0,
                0.0,
                0.0,
                0.0
            ],
            [
                0.0,
                0.0,
                0.0,
                0.0,
                0.0,
                0.0,
                0.0,
                0.0,
                0.0,
                0.0,
                0.0,
                0.0,
                0.0,
                0.0,
                0.0,
                0.0,
                0.0,
                0.0,
                0.0,
                0.0
            ],
            [
                0.0,
                0.0,
                0.0,
                0.0,
                0.0,
                0.0,
                0.0,
                0.0,
                0.0,
                0.0,
                0.0,
                0.0,
                0.0,
                0.0,
                0.0,
                0.0,
                0.0,
                0.0,
                0.0,
                0.0
            ],
            [
                0.0,
                0.0,
                0.0,
                0.0,
                0.0,
                0.0,
                0.0,
                0.0,
                0.0,
                0.0,
                0.0,
                0.0,
                0.0,
                0.0,
                0.0,
                0.0,
                0.0,
                0.0,
                0.0,
                0.0
            ],
            [
                0.0,
                0.0,
                0.0,
                0.0,
                0.0,
                0.0,
                0.0,
                0.0,
                0.0,
                0.0,
                0.0,
                0.0,
                0.0,
                0.0,
                0.0,
                0.0,
                0.0,
                0.0,
                0.0,
                0.0
            ],
            [
                0.0,
                0.0,
                0.0,
                0.0,
                0.0,
                0.0,
                0.0,
                0.0,
                0.0,
                0.0,
                0.0,
                0.0,
                0.0,
                0.0,
                0.0,
                0.0,
                0.0,
                0.0,
                0.0,
                0.0
            ],
            [
                0.0,
                0.0,
                0.0,
                0.0,
                0.0,
                0.0,
                0.0,
                0.0,
                0.0,
                0.0,
                0.0,
                0.0,
                0.0,
                0.0,
                0.0,
                0.0,
                0.0,
                0.0,
                0.0,
                0.0
            ],
            [
                0.0,
                0.0,
                0.0,
                0.0,
                0.0,
                0.0,
                0.0,
                0.0,
                0.0,
                0.0,
                0.0,
                0.0,
                0.0,
                0.0,
                0.0,
                0.0,
                0.0,
                0.0,
                0.0,
                0.0
            ],
            [
                0.0,
                0.0,
                0.0,
                0.0,
                0.0,
                0.0,
                0.0,
                0.0,
                0.0,
                0.0,
                0.0,
                0.0,
                0.0,
                0.0,
                0.0,
                0.0,
                0.0,
                0.0,
                0.0,
                0.0
            ],
            [
                0.0,
                0.0,
                0.0,
                0.0,
                0.0,
                0.0,
                0.0,
                0.0,
                0.0,
                0.0,
                0.0,
                0.0,
                0.0,
                0.0,
                0.0,
                0.0,
                0.0,
                0.0,
                0.0,
                0.0
            ],
            [
                0.0,
                0.0,
                0.0,
                0.0,
                0.0,
                0.0,
                0.0,
                0.0,
                0.0,
                0.0,
                0.0,
                0.0,
                0.0,
                0.0,
                0.0,
                0.0,
                0.0,
                0.0,
                0.0,
                0.0
            ],
            [
                0.0,
                0.0,
                0.0,
                0.0,
                0.0,
                0.0,
                0.0,
                0.0,
                0.0,
                0.0,
                0.0,
                0.0,
                0.0,
                0.0,
                0.0,
                0.0,
                0.0,
                0.0,
                0.0,
                0.0
            ],
            [
                0.0,
                0.0,
                0.0,
                0.0,
                0.0,
                0.0,
                0.0,
                0.0,
                0.0,
                0.0,
                0.0,
                0.0,
                0.0,
                0.0,
                0.0,
                0.0,
                0.0,
                0.0,
                0.0,
                0.0
            ],
            [
                0.0,
                0.0,
                0.0,
                0.0,
                0.0,
                0.0,
                0.0,
                0.0,
                0.0,
                0.0,
                0.0,
                0.0,
                0.0,
                0.0,
                0.0,
                0.0,
                0.0,
                0.0,
                0.0,
                0.0
            ],
            [
                0.0,
                0.0,
                0.0,
                0.0,
                0.0,
                0.0,
                0.0,
                0.0,
                0.0,
                0.0,
                0.0,
                0.0,
                0.0,
                0.0,
                0.0,
                0.0,
                0.0,
                0.0,
                0.0,
                0.0
            ],
            [
                0.0,
                0.0,
                0.0,
                0.0,
                0.0,
                0.0,
                0.0,
                0.0,
                0.0,
                0.0,
                0.0,
                0.0,
                0.0,
                0.0,
                0.0,
                0.0,
                0.0,
                0.0,
                0.0,
                0.0
            ],
            [
                0.0,
                0.0,
                0.0,
                0.0,
                0.0,
                0.0,
                0.0,
                0.0,
                0.0,
                0.0,
                0.0,
                0.0,
                0.0,
                0.0,
                0.0,
                0.0,
                0.0,
                0.0,
                0.0,
                0.0
            ],
            [
                0.0,
                0.0,
                0.0,
                0.0,
                0.0,
                0.0,
                0.0,
                0.0,
                0.0,
                0.0,
                0